digraph Tree {
node [shape=box, style="rounded", color="black", fontname=helvetica] ;
edge [fontname=helvetica] ;
0 [label="prevClose <= 236.4\nmse = 840.6\nsamples = 510\nvalue = 237.5"] ;
1 [label="prevClose <= 213.7\nmse = 108.7\nsamples = 258\nvalue = 211.0"] ;
0 -> 1 [labeldistance=2.5, labelangle=45, headlabel="True"] ;
2 [label="prevClose <= 202.8\nmse = 39.2\nsamples = 180\nvalue = 205.1"] ;
1 -> 2 ;
3 [label="mse = 20.6\nsamples = 51\nvalue = 196.9"] ;
2 -> 3 ;
4 [label="mse = 7.2\nsamples = 129\nvalue = 208.5"] ;
2 -> 4 ;
5 [label="prevOpen2 <= 222.8\nmse = 46.9\nsamples = 78\nvalue = 222.4"] ;
1 -> 5 ;
6 [label="mse = 3.9\nsamples = 43\nvalue = 217.1"] ;
5 -> 6 ;
7 [label="mse = 17.8\nsamples = 35\nvalue = 229.5"] ;
5 -> 7 ;
8 [label="prevHigh <= 259.8\nmse = 229.8\nsamples = 252\nvalue = 262.8"] ;
0 -> 8 [labeldistance=2.5, labelangle=-45, headlabel="False"] ;
9 [label="prevClose2 <= 248.5\nmse = 46.8\nsamples = 96\nvalue = 246.3"] ;
8 -> 9 ;
10 [label="mse = 12.6\nsamples = 68\nvalue = 242.3"] ;
9 -> 10 ;
11 [label="mse = 12.5\nsamples = 28\nvalue = 255.0"] ;
9 -> 11 ;
12 [label="prevClose <= 274.3\nmse = 61.6\nsamples = 156\nvalue = 273.3"] ;
8 -> 12 ;
13 [label="mse = 19.9\nsamples = 86\nvalue = 268.3"] ;
12 -> 13 ;
14 [label="mse = 31.2\nsamples = 70\nvalue = 280.7"] ;
12 -> 14 ;
}